{
  "SGD": {
    "Optimizer": "SGD",
    "Feature_Dimension": 5,
    "Complexity_Level": "low",
    "Noise_Level": 0.1,
    "Hidden_Neurons": 16,
    "Weight_Bias_Values": [
      -0.7170433402061462,
      1.0327343940734863,
      -0.07390003651380539,
      -0.19029651582241058,
      0.1316676139831543,
      -0.9708610773086548,
      0.09023633599281311,
      -0.13067033886909485,
      0.8548730611801147,
      0.6499773263931274,
      -0.5793268084526062,
      0.5873290300369263,
      -0.8809002041816711,
      0.24654296040534973,
      -0.19709572196006775,
      0.02498088777065277,
      -0.22045090794563293,
      -0.24287134408950806,
      -0.2582741975784302,
      -0.07888006418943405,
      -0.7480272650718689,
      -0.034170567989349365,
      -1.044334053993225,
      -0.35612839460372925,
      -0.36562442779541016,
      -0.9288881421089172,
      -0.8329370617866516,
      -0.7764124274253845,
      -0.6831576228141785,
      0.7269431948661804,
      -0.20125462114810944,
      0.741944432258606,
      0.2667465806007385,
      0.48871612548828125,
      0.6682432889938354,
      0.2530994415283203,
      -0.7456547617912292,
      0.1462586224079132,
      0.11070258915424347,
      -0.8066800236701965,
      -1.0135977268218994,
      0.6864742636680603,
      -0.8983697295188904,
      -0.5523948669433594,
      0.1305456906557083,
      -0.6605631709098816,
      -0.5303993225097656,
      -0.3149651288986206,
      -0.5842841863632202,
      0.5499126315116882,
      -0.3204598128795624,
      0.04459928721189499,
      -0.7926904559135437,
      -0.9308857917785645,
      0.03544486314058304,
      0.4685668647289276,
      0.2386389821767807,
      0.6581562161445618,
      0.04498615860939026,
      0.018798302859067917,
      -0.19711552560329437,
      0.32965344190597534,
      0.48412415385246277,
      -0.22833605110645294,
      0.2419704794883728,
      0.48471564054489136,
      -0.4772487282752991,
      -0.7476328015327454,
      0.3862401843070984,
      0.14891085028648376,
      -0.598881185054779,
      0.12156940996646881,
      -0.65135258436203,
      -0.6712155938148499,
      -0.08562605828046799,
      0.8988314270973206,
      -0.364571213722229,
      0.049471281468868256,
      0.8011413216590881,
      0.7427070736885071,
      -0.16028930246829987,
      -0.11050844937562943,
      -0.4248628318309784,
      -0.2542211413383484,
      0.12461505830287933,
      -0.30925166606903076,
      0.40374860167503357,
      -0.21566639840602875,
      0.11832823604345322,
      -0.1842919886112213,
      -0.17257361114025116,
      0.4633702337741852,
      0.24236942827701569,
      -0.018556473776698112,
      0.36342477798461914,
      0.07866007089614868,
      0.008186808787286282,
      -0.005734577775001526,
      0.0008067710441537201,
      -0.12608176469802856,
      0.009032289497554302,
      -0.05645984783768654,
      0.04917759448289871,
      -0.01480100117623806,
      -0.0018899108981713653,
      0.07221163809299469,
      0.056266576051712036,
      0.05697935074567795,
      -0.06849423050880432,
      0.04807617887854576,
      -0.05629101023077965,
      -0.004004505462944508,
      0.43828174471855164
    ],
    "Function_Type": "polynomial",
    "Training_Loss": 0.0013575573234861208,
    "Validation_Loss": 0.001510822051204741,
    "Test_Loss": 0.0014069988625124096,
    "Training_Time": 2.072587728500366
  },
  "GA": {
    "Optimizer": "GA",
    "Feature_Dimension": 2,
    "Complexity_Level": "low",
    "Noise_Level": 0.1,
    "Hidden_Neurons": 2,
    "Weight_Bias_Values": [
      -0.5574122891363709,
      0.31745860604067405,
      0.6362672096755053,
      0.5155818503427787,
      -1.047920468210127,
      0.8453174122933932,
      0.0011152720785402442,
      0.13191519194153434,
      0.4044234244115288,
      0.1105089866220858,
      -0.6198811908850661,
      -0.41309401934462436,
      0.26192082543757167,
      -0.27746634086638533,
      -0.601618570398968,
      0.6655263956257222,
      -0.5396768446909579,
      0.10882317093182192,
      0.5626827936299781,
      -0.94841103800188,
      0.007028211847809329,
      -0.2505513894192667,
      -0.6796801162179,
      0.6374487171579517,
      -0.7682596694789046,
      0.4160959276911047,
      0.2902336250734043,
      -0.11304725430470453,
      -0.1974430768777302,
      1.0119761269360104,
      -0.6177975987696658,
      -0.4316558854593233,
      0.9770601707011833,
      0.541016186103073,
      0.6363532018796664,
      0.08694511249276116,
      0.6401353648943882,
      -0.24118603464009192,
      0.8287883216704355,
      -0.20764286843560795,
      -0.4746711716299443,
      0.3574064302546784,
      -0.9299120050830549,
      -0.816490310791351,
      -0.9956435348089823,
      0.5412516235341818,
      0.43090787570594885,
      -0.1664867510146939,
      0.07408183937986507,
      -0.6999114347028683,
      0.6890989669358798,
      0.2421322151760268,
      -0.2952675292791045,
      0.7811374646624905,
      0.42125696081997455,
      -0.5288866259894189,
      0.4718025507687622,
      -0.5969697375126259,
      0.9191953855112267,
      -0.019826879423826993,
      -0.25667550731457167,
      -0.58294057748505,
      -0.3797019350014972,
      -0.7717054896032188,
      0.6041685653774891,
      -0.04356772602651393,
      -0.6317011621195632,
      -0.8093512135368109,
      0.6372651227012942,
      0.11357749215981872,
      0.005833385835807503,
      -0.10400196731577727,
      0.48900458162009897,
      -0.03309132056285205,
      -0.761347722182131,
      -0.872233818154353,
      -0.5406291951069288,
      0.9512211793919589,
      -0.6771726965250413,
      0.3710139707567821,
      0.42085341292527406,
      0.7406168402722598,
      0.2739705524185592,
      0.4227734998091679,
      -0.6361422244536702,
      -0.4429285713019757,
      -0.03983090781253348,
      0.18399618517570393,
      -0.45592045349918026,
      0.6884184626357055,
      0.0682981342930763,
      -0.7993253317686304,
      0.6381035315725412,
      0.8538232030342083,
      -0.30734469982831025,
      0.10928716917043513,
      0.1661412055755036,
      0.6032418376027624,
      -0.6963234522768491,
      0.68250812806009,
      0.44321900250263835,
      -0.9301598081175639,
      0.13383034254446668,
      -1.0055773515982929,
      0.21359732386123095,
      0.198826235635585,
      0.269759411258361,
      -0.2201576007174153,
      0.15166805108898607,
      0.16001949583029473,
      -0.40970970664686746,
      0.54306332198928,
      0.6493359326442077,
      0.44808233181762414,
      0.5910011777778754,
      0.16789987370063314,
      0.6015612178098568,
      0.8391605043510392,
      0.8088376831031632,
      -0.3442235609916515,
      0.943945654710509,
      -0.995933130983762,
      0.06007319560285718,
      0.009071481939060832,
      -0.555063592275915,
      0.4308165127024869,
      0.4921264569771289,
      0.4315337098580403,
      0.29304761259534723
    ],
    "Function_Type": "polynomial",
    "Training_Loss": 0.00874348289587281,
    "Validation_Loss": 0.008714108448475599,
    "Test_Loss": 0.0073319086804986,
    "Training_Time": 60.15029740333557
  },
  "ES": {
    "Optimizer": "ES",
    "Feature_Dimension": 5,
    "Complexity_Level": "medium",
    "Noise_Level": 0.1,
    "Hidden_Neurons": 1,
    "Weight_Bias_Values": [
      0.744078998250549,
      -0.004512722514502798,
      1.1439834086603828,
      0.9398523499346358,
      -1.0551650155600156,
      -1.5792905859824076,
      0.035512271617524155,
      0.5853943978019396,
      -2.9524543297783024,
      -0.08933825401617541,
      -1.8512662722334317,
      0.4937111312562696,
      -0.35453308300438385,
      -0.20261741940551914,
      0.647434160136452,
      -0.5212392160106147,
      0.7975075669750029,
      -0.047592441965507874,
      1.3160854331354281,
      0.2298340635564426,
      1.3415615833339725,
      0.8527952206694309,
      -0.38300470722100366,
      -0.3613070269148636,
      -0.8432622953015436,
      0.12108607521270975,
      -0.51785764403813,
      0.1300659068632699,
      -0.33671687417547413,
      0.043528033478260966,
      -0.455878704313755,
      -0.34905860991305526,
      0.452430081894282,
      1.127374236726708,
      0.5870785039902366,
      1.5202262067525458,
      -0.8514316154872531,
      0.195556470469321,
      0.7957305844564471,
      -0.49775799253517883,
      0.4581764425830802,
      -2.5044427074470494,
      -0.15627064702369176,
      0.6155698873644437,
      -0.9877120666648149,
      1.3288829091517416,
      -0.5713519098096148,
      -1.9549856854136338,
      -0.8089052773655987,
      -2.531567273739424,
      -0.5075336624229817,
      0.2542769334845919,
      0.1592831582272321,
      0.26447044877081305,
      -0.4113300244774357,
      1.1226827301862352,
      -0.8656907397196212,
      -1.3249289541807452,
      0.19897936088828838,
      -1.7107296370005898,
      0.44719370708768413,
      1.1332420724784646,
      -0.3162585392287494,
      2.7943891195752504,
      0.5019175099985171,
      0.5215169830079137,
      -0.2781612210594009,
      -1.5626285685581638,
      0.7840017921926781,
      1.3698348171205674,
      1.384426775005051,
      -1.1223712025588595,
      -1.1375290848649076,
      0.16996344014653358,
      -0.3354780123943263,
      0.4143496254408759,
      0.14013251114793393,
      0.5948384220992091,
      0.4921872642790749,
      1.2135008154206803,
      0.2827400832783542,
      -2.471143861945541,
      1.6112333992509702,
      -0.15395804681880493,
      -0.40543618700941775,
      -0.2967885426620349,
      1.6365769845757012,
      -0.3305141642539363,
      -0.2177345161016414,
      -0.9178850891141712,
      -0.20862885223176733,
      1.3204907210937624,
      -0.2161212283181424,
      0.31455098836491446,
      -1.7621892476203904,
      0.9410858688706423,
      1.1462684638548692,
      2.1790051961306567,
      0.8224300722852129,
      -1.8472084369891117,
      0.042846216274453064,
      2.370062093391461,
      1.152853643076373,
      -0.1444126661997911,
      0.16868243940435412,
      0.7995828719369414,
      -1.3501449882587457,
      1.3387697661260867,
      -0.6603277775275294,
      2.273117446519444,
      -2.114561584221703,
      -1.1562552982702328,
      0.028031182143915832,
      0.5732412520704012,
      -0.14233017596166908,
      0.311768898206026,
      -1.1136534682383172,
      -1.1882637953145565,
      -1.3743661615382026,
      -0.9258868894189141,
      -0.31261616937389436,
      0.24341188085486748,
      0.360272028500316,
      -0.7105459904748483,
      0.6716158400340135,
      1.59236433293224,
      0.823783518813461,
      -1.1626564812319093,
      -2.5198039587955483,
      0.002787179759189115,
      -1.088240821875952,
      1.864932877549077,
      -1.0155687637886401,
      0.03463173212465128,
      0.14054504090948236,
      0.9065135873405364,
      -1.1470524723135795,
      -0.8325679759775487,
      -1.7117703406176747,
      -0.8302385549063643,
      0.4941048423671243,
      -0.35571649879745865,
      0.354198159881954,
      1.364637809470794,
      2.1891978143625512,
      2.538510306953383,
      0.6705631831131422,
      -0.2591826247255714,
      0.8464500153285871,
      2.0476241770302193,
      0.08713436029643984,
      0.9387868318369562,
      -1.6116073428778366,
      -0.1881145002839857,
      -0.30367386644516897,
      -1.2383354342027024,
      -2.0729570129591446,
      0.11294592065639975,
      1.0214242211522069,
      -0.7015358792318764,
      1.0561341455171789,
      -0.7396944177468725,
      -0.4462942929479714,
      0.5147811765597243,
      -0.3923063333722451,
      -1.096360127090304,
      -2.420125813471609,
      0.18496066237359807,
      0.5493277939619352,
      0.6243528481208527,
      -1.1576210352769365,
      1.1461107195416234,
      1.2979789969797892,
      -1.7514925325429531,
      1.9421366781312168,
      -1.7611991114368373,
      0.6074082923455557,
      -0.11274397519215121,
      1.090840390199558,
      -0.6756206907865917,
      0.24586421342012987,
      2.870267115167722,
      -2.1423335452766343,
      -0.4141894443350004,
      -0.0980265144282853,
      0.3737144695450344,
      -2.0377693949460185,
      -0.6869805103671577,
      -0.39071478693250034,
      1.2550171313398781,
      0.08773939494244029,
      -1.2091140172989887,
      0.4453349161575394,
      -0.57770631530719,
      -1.2509808770123874,
      -1.48019355526101,
      -0.15449776287802183,
      -0.29312793107536106,
      -0.0317950564440867,
      -0.2927925452121458,
      -0.6525962857624344,
      1.0955167419139682,
      -1.8151460598533025,
      0.6923388916394603,
      1.3350613076299143,
      -2.0522208807704017,
      0.056514197914632455,
      0.2866621913887641,
      0.6193378340906416,
      0.21666642102190084,
      -0.7791474446656641,
      -1.0562522558275413,
      1.3041044627175478,
      0.1173747591020029,
      -1.844646124109726,
      -0.7219956989738959,
      1.0425897755046925,
      -1.2825268923773936,
      0.9229914321446083,
      0.13340256446833185,
      -2.4434092956045945,
      2.0347831905744433,
      0.8673056344007952,
      0.03383785875602091,
      0.27595731665930023
    ],
    "Function_Type": "polynomial",
    "Training_Loss": 0.0308811648494818,
    "Validation_Loss": 0.028423973917961122,
    "Test_Loss": 0.025684663280844688,
    "Training_Time": 13.167940855026245
  }
}