{
  "0.1_2_polynomial": {
    "Optimizer": "SGD",
    "Feature_Dimension": 2,
    "Complexity_Level": "low",
    "Noise_Level": 0.1,
    "Hidden_Neurons": 16,
    "Weight_Bias_Values": [
      -0.25380533933639526,
      -0.00692963320761919,
      0.3313782215118408,
      1.0054106712341309,
      1.5952800512313843,
      -1.358219027519226,
      -0.7585972547531128,
      0.554236888885498,
      1.2106784582138062,
      1.6538692712783813,
      1.4886692762374878,
      0.3397074043750763,
      -1.4902424812316895,
      0.1644207090139389,
      -1.0819514989852905,
      -1.5040333271026611,
      1.5171308517456055,
      1.3000264167785645,
      -1.644768476486206,
      0.3814339339733124,
      -0.20998379588127136,
      -0.2578524649143219,
      -0.7970914840698242,
      0.6547112464904785,
      -1.0725775957107544,
      0.5700978636741638,
      0.9425103664398193,
      1.163809895515442,
      0.47904735803604126,
      -1.7108354568481445,
      -1.0385661125183105,
      0.9064379334449768,
      -0.44531750679016113,
      -0.33605363965034485,
      -0.4753991663455963,
      -0.4803068935871124,
      -0.40155354142189026,
      0.5837414264678955,
      0.30999377369880676,
      0.2967045307159424,
      0.033933889120817184,
      -0.393928587436676,
      0.03549889475107193,
      -0.7076914310455322,
      -0.46649089455604553,
      -0.37278664112091064,
      0.48721182346343994,
      0.341837614774704,
      0.12588895857334137,
      -0.22131384909152985,
      -0.020097294822335243,
      0.3485558032989502,
      0.3387588560581207,
      -0.012217641808092594,
      0.14330913126468658,
      -0.019423384219408035,
      -0.0187046080827713,
      -0.16818006336688995,
      -0.3737723231315613,
      -0.26054006814956665,
      0.03458208590745926,
      -0.2311280220746994,
      0.06208362802863121,
      -0.024560658261179924,
      0.44710245728492737
    ],
    "Function_Type": "polynomial",
    "Training_Loss": 0.0018602881358343768,
    "Validation_Loss": 0.002299988083541393,
    "Test_Loss": 0.0017115318914875388,
    "Training_Time": 2.765885829925537
  },
  "0.1_2_sinusoidal": {
    "Optimizer": "SGD",
    "Feature_Dimension": 2,
    "Complexity_Level": "low",
    "Noise_Level": 0.1,
    "Hidden_Neurons": 16,
    "Weight_Bias_Values": [
      -0.4315844774246216,
      -0.6690061092376709,
      -0.011660145595669746,
      0.5879064798355103,
      -0.06916206330060959,
      1.5170782804489136,
      -1.515606164932251,
      -0.07192771136760712,
      1.36737859249115,
      1.50771963596344,
      -0.6108603477478027,
      -1.592200517654419,
      -1.5108619928359985,
      1.397041916847229,
      -0.04134950786828995,
      -1.1033929586410522,
      0.5822213888168335,
      1.2868189811706543,
      -0.9801690578460693,
      1.012551188468933,
      -1.1745243072509766,
      0.9174818992614746,
      -0.5754231810569763,
      -1.3767794370651245,
      -1.081906795501709,
      0.8754587769508362,
      1.4485547542572021,
      1.0422534942626953,
      1.004595398902893,
      0.8621011972427368,
      1.0248847007751465,
      0.5576280355453491,
      0.3880889117717743,
      0.6259086728096008,
      -0.07477176934480667,
      0.05455757677555084,
      -0.12975895404815674,
      -0.11891793459653854,
      0.060888227075338364,
      -0.31877848505973816,
      0.4486902356147766,
      -0.1729888617992401,
      0.53013676404953,
      -0.6949498057365417,
      -0.14125750958919525,
      -0.8012145161628723,
      -0.4745488166809082,
      -0.6743367910385132,
      -0.043211691081523895,
      0.5989807844161987,
      -0.31785666942596436,
      0.06429203599691391,
      -0.17182019352912903,
      -0.3322853744029999,
      0.43721094727516174,
      0.29397502541542053,
      0.08069434762001038,
      -0.35673630237579346,
      -0.08679898083209991,
      0.26271378993988037,
      -0.21604107320308685,
      0.3006971776485443,
      0.16877208650112152,
      -0.4705554246902466,
      0.2935117781162262
    ],
    "Function_Type": "sinusoidal",
    "Training_Loss": 0.0365635458887978,
    "Validation_Loss": 0.03297852985560894,
    "Test_Loss": 0.044831884652376176,
    "Training_Time": 2.290358304977417
  },
  "0.1_5_polynomial": {
    "Optimizer": "SGD",
    "Feature_Dimension": 5,
    "Complexity_Level": "low",
    "Noise_Level": 0.1,
    "Hidden_Neurons": 16,
    "Weight_Bias_Values": [
      -0.7170433402061462,
      1.0327343940734863,
      -0.07390003651380539,
      -0.19029651582241058,
      0.1316676139831543,
      -0.9708610773086548,
      0.09023633599281311,
      -0.13067033886909485,
      0.8548730611801147,
      0.6499773263931274,
      -0.5793268084526062,
      0.5873290300369263,
      -0.8809002041816711,
      0.24654296040534973,
      -0.19709572196006775,
      0.02498088777065277,
      -0.22045090794563293,
      -0.24287134408950806,
      -0.2582741975784302,
      -0.07888006418943405,
      -0.7480272650718689,
      -0.034170567989349365,
      -1.044334053993225,
      -0.35612839460372925,
      -0.36562442779541016,
      -0.9288881421089172,
      -0.8329370617866516,
      -0.7764124274253845,
      -0.6831576228141785,
      0.7269431948661804,
      -0.20125462114810944,
      0.741944432258606,
      0.2667465806007385,
      0.48871612548828125,
      0.6682432889938354,
      0.2530994415283203,
      -0.7456547617912292,
      0.1462586224079132,
      0.11070258915424347,
      -0.8066800236701965,
      -1.0135977268218994,
      0.6864742636680603,
      -0.8983697295188904,
      -0.5523948669433594,
      0.1305456906557083,
      -0.6605631709098816,
      -0.5303993225097656,
      -0.3149651288986206,
      -0.5842841863632202,
      0.5499126315116882,
      -0.3204598128795624,
      0.04459928721189499,
      -0.7926904559135437,
      -0.9308857917785645,
      0.03544486314058304,
      0.4685668647289276,
      0.2386389821767807,
      0.6581562161445618,
      0.04498615860939026,
      0.018798302859067917,
      -0.19711552560329437,
      0.32965344190597534,
      0.48412415385246277,
      -0.22833605110645294,
      0.2419704794883728,
      0.48471564054489136,
      -0.4772487282752991,
      -0.7476328015327454,
      0.3862401843070984,
      0.14891085028648376,
      -0.598881185054779,
      0.12156940996646881,
      -0.65135258436203,
      -0.6712155938148499,
      -0.08562605828046799,
      0.8988314270973206,
      -0.364571213722229,
      0.049471281468868256,
      0.8011413216590881,
      0.7427070736885071,
      -0.16028930246829987,
      -0.11050844937562943,
      -0.4248628318309784,
      -0.2542211413383484,
      0.12461505830287933,
      -0.30925166606903076,
      0.40374860167503357,
      -0.21566639840602875,
      0.11832823604345322,
      -0.1842919886112213,
      -0.17257361114025116,
      0.4633702337741852,
      0.24236942827701569,
      -0.018556473776698112,
      0.36342477798461914,
      0.07866007089614868,
      0.008186808787286282,
      -0.005734577775001526,
      0.0008067710441537201,
      -0.12608176469802856,
      0.009032289497554302,
      -0.05645984783768654,
      0.04917759448289871,
      -0.01480100117623806,
      -0.0018899108981713653,
      0.07221163809299469,
      0.056266576051712036,
      0.05697935074567795,
      -0.06849423050880432,
      0.04807617887854576,
      -0.05629101023077965,
      -0.004004505462944508,
      0.43828174471855164
    ],
    "Function_Type": "polynomial",
    "Training_Loss": 0.0013575573234861208,
    "Validation_Loss": 0.001510822051204741,
    "Test_Loss": 0.0014069988625124096,
    "Training_Time": 2.072587728500366
  },
  "0.1_5_sinusoidal": {
    "Optimizer": "SGD",
    "Feature_Dimension": 5,
    "Complexity_Level": "low",
    "Noise_Level": 0.1,
    "Hidden_Neurons": 16,
    "Weight_Bias_Values": [
      -0.1496749073266983,
      0.99700927734375,
      0.3775250315666199,
      0.6695340275764465,
      -0.5434024333953857,
      0.538155734539032,
      -0.22881589829921722,
      0.5155064463615417,
      0.4396621286869049,
      -0.7466119527816772,
      0.7647766470909119,
      -0.7280009984970093,
      0.009073075838387012,
      0.6060812473297119,
      -0.03698837012052536,
      -0.6028700470924377,
      0.708631157875061,
      -1.0053142309188843,
      -0.22677426040172577,
      1.0053995847702026,
      -0.40207409858703613,
      -0.2840574085712433,
      1.0458534955978394,
      -0.7861918210983276,
      0.9016411304473877,
      0.1233784481883049,
      0.3727218508720398,
      -0.7023828625679016,
      -1.0295169353485107,
      1.027579426765442,
      -0.9202008843421936,
      0.7869713306427002,
      0.8257505297660828,
      0.0066939229145646095,
      0.4214385151863098,
      -0.6043349504470825,
      0.7008498311042786,
      0.30406925082206726,
      -0.7615559101104736,
      0.951426088809967,
      -0.43843913078308105,
      -0.9617892503738403,
      -0.018551860004663467,
      0.3500743806362152,
      0.05135644972324371,
      0.48997607827186584,
      0.04163414239883423,
      0.36379697918891907,
      -0.2555164098739624,
      -0.49206432700157166,
      0.2703090310096741,
      0.6807880401611328,
      0.1438702940940857,
      -0.2199379801750183,
      0.05088500678539276,
      0.6185999512672424,
      0.019186923280358315,
      0.5940625667572021,
      -1.0241163969039917,
      -0.8651314377784729,
      0.3544257879257202,
      0.21093599498271942,
      -0.6254479289054871,
      0.7111351490020752,
      -0.2373807728290558,
      0.2746637761592865,
      1.0955934524536133,
      -0.902714192867279,
      0.42785120010375977,
      -0.40045395493507385,
      0.2540432810783386,
      -0.16990704834461212,
      0.0519527792930603,
      0.40061724185943604,
      -0.3492704927921295,
      -0.8890938758850098,
      0.7684220671653748,
      -0.08484522998332977,
      0.5663121342658997,
      -0.23663219809532166,
      0.27083611488342285,
      -0.2998252511024475,
      0.14563271403312683,
      -0.23229405283927917,
      -0.15542487800121307,
      -0.3569280505180359,
      -0.3870806396007538,
      -0.15491995215415955,
      0.11594799160957336,
      0.31616920232772827,
      -0.3452674150466919,
      0.37570053339004517,
      0.3893508017063141,
      0.09253088384866714,
      0.12128961831331253,
      -0.3619791567325592,
      -0.003521132282912731,
      0.1098804920911789,
      0.0015589400427415967,
      -0.04396657645702362,
      -0.026490064337849617,
      0.018589312210679054,
      -0.004011692479252815,
      0.044011037796735764,
      0.03350197151303291,
      -0.05082269012928009,
      -0.05475899204611778,
      0.02165714092552662,
      0.05040282383561134,
      0.010525849647819996,
      -0.21439474821090698,
      0.0004964265390299261,
      0.4532305896282196
    ],
    "Function_Type": "sinusoidal",
    "Training_Loss": 0.027317558161237022,
    "Validation_Loss": 0.024620556458830833,
    "Test_Loss": 0.034186971560120585,
    "Training_Time": 2.1287341117858887
  },
  "0.1_10_polynomial": {
    "Optimizer": "SGD",
    "Feature_Dimension": 10,
    "Complexity_Level": "low",
    "Noise_Level": 0.1,
    "Hidden_Neurons": 16,
    "Weight_Bias_Values": [
      -0.5830747485160828,
      0.18535766005516052,
      -0.04814472049474716,
      -0.2596100866794586,
      0.06097135320305824,
      0.24441874027252197,
      -0.647448718547821,
      0.7605775594711304,
      0.692474901676178,
      -0.7525776028633118,
      0.48896658420562744,
      -0.6722409725189209,
      -0.57530677318573,
      0.009489155374467373,
      0.16868799924850464,
      0.262940913438797,
      -0.7051543593406677,
      -0.6747356057167053,
      -0.04676629230380058,
      -0.5997058153152466,
      0.16677507758140564,
      -0.012134491465985775,
      0.16143642365932465,
      -0.16326110064983368,
      -0.18026620149612427,
      0.20968638360500336,
      -0.07727877795696259,
      0.4087619483470917,
      -0.18825969099998474,
      -0.018157370388507843,
      0.3342210352420807,
      -0.4153497815132141,
      0.31067362427711487,
      -0.08993209153413773,
      0.0032087950967252254,
      -0.513306736946106,
      -0.012232630513608456,
      0.17574091255664825,
      -0.11638551205396652,
      -0.5572279095649719,
      0.37614455819129944,
      -0.5103581547737122,
      0.07880625128746033,
      0.5139583945274353,
      -0.2666603624820709,
      0.4668952524662018,
      0.15229889750480652,
      0.7048130035400391,
      -0.30491015315055847,
      0.26520806550979614,
      0.2985292375087738,
      0.0842687264084816,
      0.3872534930706024,
      -0.6000672578811646,
      -0.2230866402387619,
      0.48188865184783936,
      0.023323677480220795,
      0.5684730410575867,
      -0.15098319947719574,
      -0.019699623808264732,
      0.7789382934570312,
      0.009610606357455254,
      -0.015788892284035683,
      0.04904477670788765,
      0.18442398309707642,
      -0.1600649505853653,
      0.336870938539505,
      0.5910816788673401,
      0.15234623849391937,
      0.5650044083595276,
      -0.33186206221580505,
      0.5709921717643738,
      0.3782114088535309,
      0.5892199277877808,
      0.6665061116218567,
      0.6261641979217529,
      0.007193468045443296,
      0.14747801423072815,
      0.5455648303031921,
      -0.6362388134002686,
      -0.18741083145141602,
      -0.12733246386051178,
      -0.12165778130292892,
      -0.17999893426895142,
      -0.013644324615597725,
      0.16523779928684235,
      0.6483299732208252,
      -0.3028181493282318,
      0.17656314373016357,
      -0.49827176332473755,
      -0.6912928223609924,
      0.23954686522483826,
      -0.017948566004633904,
      0.6954238414764404,
      0.07066075503826141,
      0.05935652554035187,
      -0.7641446590423584,
      0.3621043562889099,
      0.21769362688064575,
      -0.030124938115477562,
      0.2215498685836792,
      -0.14295101165771484,
      0.702053427696228,
      -0.13829688727855682,
      -0.7093074321746826,
      -0.5870176553726196,
      -0.7289326190948486,
      -0.7290756702423096,
      -0.1899602860212326,
      -0.03308917582035065,
      -0.5192620158195496,
      -0.5245413184165955,
      -0.3777782618999481,
      -0.4382722079753876,
      -0.05716937407851219,
      0.15434053540229797,
      0.6518558263778687,
      0.31472107768058777,
      -0.25133493542671204,
      -0.2584192752838135,
      0.06353665143251419,
      0.647650420665741,
      -0.2778365910053253,
      0.6156758666038513,
      -0.618622899055481,
      0.5937086343765259,
      -0.6870041489601135,
      0.23071730136871338,
      -0.47614315152168274,
      0.2420816570520401,
      0.20115715265274048,
      -0.4869033694267273,
      -0.1741693913936615,
      0.5532609820365906,
      -0.49752143025398254,
      -0.009450758807361126,
      0.37730371952056885,
      0.5996023416519165,
      -0.15726149082183838,
      -0.6406517028808594,
      0.5977831482887268,
      0.33702218532562256,
      -0.3765295743942261,
      0.7202700972557068,
      -0.14958155155181885,
      -0.6284520030021667,
      0.09845595806837082,
      0.24970516562461853,
      0.7283667922019958,
      0.5114428997039795,
      -0.24876533448696136,
      0.1287786066532135,
      0.19244517385959625,
      0.05062023177742958,
      0.12912192940711975,
      0.21976599097251892,
      -0.6154701709747314,
      0.502948522567749,
      0.6234986782073975,
      0.4453597962856293,
      -0.26685830950737,
      -0.3173651397228241,
      -0.32036900520324707,
      -0.07513881474733353,
      0.011362622492015362,
      -0.2060583233833313,
      -0.262545645236969,
      -0.039550427347421646,
      -0.22198720276355743,
      0.2043338567018509,
      -0.048174917697906494,
      -0.06842820346355438,
      -0.06026246026158333,
      0.02453107386827469,
      0.03313338756561279,
      -0.11277471482753754,
      -0.015724321827292442,
      -0.0027106357738375664,
      -0.10839007049798965,
      -0.010430452413856983,
      0.03767459839582443,
      0.06962306052446365,
      0.012915150262415409,
      0.017972389236092567,
      0.00975826010107994,
      -0.02938343957066536,
      -0.005411037243902683,
      -0.010086627677083015,
      0.01537403929978609,
      -0.007409428711980581,
      0.0013843448832631111,
      0.027715979143977165,
      0.40936434268951416
    ],
    "Function_Type": "polynomial",
    "Training_Loss": 0.0050267784390598536,
    "Validation_Loss": 0.005080216005444527,
    "Test_Loss": 0.006051103724166751,
    "Training_Time": 8.672798871994019
  },
  "0.1_10_sinusoidal": {
    "Optimizer": "GA",
    "Feature_Dimension": 10,
    "Complexity_Level": "low",
    "Noise_Level": 0.1,
    "Hidden_Neurons": 1,
    "Weight_Bias_Values": [
      0.08415692007564024,
      -0.3115202459781196,
      0.8529849437728511,
      0.051139974351503616,
      -0.343928438866571,
      -0.5689561640154438,
      -0.10198123471079981,
      0.1408618278104506,
      -0.4354378002275646,
      0.04783160994853411,
      0.1538734983443991,
      0.012370855045743645,
      0.5791412799165752,
      -0.18640306497469084,
      -0.4321360468732095,
      -0.32644680645381463,
      -0.36974373801937077,
      -0.3988837943194917,
      -0.17248336774770254,
      0.8040035870529658,
      0.9776504034562307,
      0.3001241842194968,
      0.7214600038307535,
      -0.9839419140983504,
      -0.5309331050247872,
      0.42209414511578336,
      0.8247179961709483,
      0.2148512322489935,
      0.30011964193709795,
      -0.4740812055249726,
      0.03410813732613936,
      -0.31635192918776356,
      -0.8468916301091942,
      0.02463579634402463,
      -0.035276172594376876,
      -0.20300498435491665,
      0.5909450717056763,
      0.8259323036595401,
      0.292691051067565,
      -0.8742769577226057,
      -0.8653887973290566,
      -0.9656322736074454,
      -0.39004721619441973,
      -0.056303384793847916,
      -0.8674782282308049,
      0.7572943474048816,
      0.7789838847578907,
      0.6958799300640824,
      0.39739205113578274,
      0.9246695736977508,
      0.6178649142817132,
      0.5610092330921552,
      -0.12349608136854412,
      0.2212725382463998,
      0.46352268462795254,
      -0.22201985759648246,
      -0.22595538184983877,
      -0.8947513446622104,
      0.19472229609130376,
      -0.6003288214504341,
      -0.02535312195653472,
      -0.922065887233926,
      0.7116690744581624,
      -0.4619331173519261,
      0.37910927103040937,
      0.22433534635067875,
      0.4625443102060315,
      -0.9691901872222128,
      -0.23334550344614136,
      0.39693925716613504,
      -0.7298850039298388,
      0.2446463815364679,
      0.4281101785395444,
      0.6917816328354112,
      0.5665426643173893,
      -0.11254764256095773,
      0.8850627608726269,
      -0.7225413363055886,
      0.5512619100701911,
      -0.8844411469600626,
      0.4549002640142814,
      -0.04792426710852693,
      0.19472163346516125,
      0.3439511159894886,
      0.7422139948614128,
      0.8637683657284214,
      0.3588245841784541,
      0.013579891157196641,
      0.9602600950198941,
      1.1323244975760738,
      0.8938097997026142,
      0.7570374478968638,
      0.661282830141,
      0.9811245788878846,
      -0.6120293031121808,
      0.6981304704806877,
      0.06177091799016554,
      -0.7222030005548653,
      -0.5902939767202097,
      -0.3643546756255179,
      0.24283891673391195,
      0.07525276878769982,
      -0.1446958110776617,
      -0.03312920726589701,
      0.7779248072552271,
      -0.01200739955235558,
      0.5886795765045664,
      0.6792000652983989,
      0.9973060888597658,
      0.8139965843805359,
      -0.18182106215273328,
      0.6742188599590668,
      0.7282057405722728,
      -0.5478178395305335,
      -0.36993155309701575,
      0.8023959404317076,
      -0.3680685737012048,
      -0.8841922050291762,
      0.9292221455855789,
      -0.5778414176945013,
      -0.49753895204806,
      0.7842123419026743,
      -0.003825554263028351,
      -0.4821387524886912,
      -0.8929323908851909,
      -0.4373864762744792,
      0.21101329076919906,
      0.7709877572990291,
      0.10320395241919625,
      -0.22625558604818097,
      0.32563336825282574,
      0.5923612152231749,
      0.5298128840528322,
      0.6136675422482587,
      -0.16109106356958347,
      -0.38073178298362387,
      0.6582033046720313,
      -0.24869547392220373,
      0.17962835565440116,
      -0.8886614199909757,
      -0.5794802607824041,
      0.8433139481043532,
      -0.9891166227749437,
      0.2237199270232464,
      -0.14857634437867615,
      0.27191014652416934,
      -0.9966533088264375,
      -0.5189805186974349,
      0.05481890638973262,
      -0.8123577111102918,
      -0.07286264431732548,
      -0.6413319399046301,
      0.053161444844038286,
      0.48107602385700377,
      0.3308457529278539,
      -0.8189359808845943,
      0.8854542584734715,
      -0.8459382038412016,
      0.46700736108764085,
      0.19854565459051488,
      0.3968596321258985,
      -0.722351062741335,
      -0.2922865217736027,
      0.3601410802470489,
      0.27653417186044815,
      0.6190684038106349,
      1.0033858931773294,
      0.8913797327083205,
      -0.18565100770812948,
      -0.6077831006094314,
      0.8650976894412306,
      0.7467255193397371,
      -0.4835935663829307,
      -0.42308407594640185,
      0.028618011397472776,
      0.17771082766577645,
      -0.12590578734720959,
      -0.341607928761124,
      -0.4970776088990225,
      -0.7923503564375872,
      0.8304147780021667,
      -0.3869038942885017,
      -0.8776526806090317,
      -0.3235564923912284,
      -0.19747697817399912,
      -0.10942821743519049,
      -0.1478675108451669,
      -0.1628192659577834,
      0.6179430092381135,
      -0.08528166831414308,
      0.8291398360482622,
      0.5108258889094914,
      0.8959941416957322,
      -0.4497633980116489,
      -0.312733005294118,
      0.5972210576144202,
      0.6769121772128772,
      -0.17715563625882869,
      0.35067910225743537,
      0.894641497735742,
      -0.23375844094769072,
      0.15850473788391883,
      0.21160450799389205,
      0.49781232435610034,
      0.8587314415110352,
      0.24679129189471097,
      -0.22993423160368698,
      0.7736960374049526,
      0.14391902787443356,
      -0.37918443809029834,
      -0.24047374138519237,
      -0.9423523615459297,
      -0.08787411205501527,
      0.16604298810195695,
      -0.37422103628934045,
      0.3159620053874468,
      1.0191266818004723,
      -0.6826812314885077,
      0.6483771191686525,
      -0.5273696006134164,
      -0.2878113707574772,
      0.4579745981266433,
      -0.9490552826943526,
      -0.003408863757545344,
      0.5752865282130988,
      0.910976819103992,
      -0.1527064170283634,
      1.0423461832096852,
      0.09717445068593,
      0.38195070865284664,
      0.1639311124663283,
      0.5754178363765161,
      0.21780432094271085,
      0.7580572867906921,
      0.16378243090273154,
      0.8490678890157461,
      0.8923723324920148,
      0.45793314480556013,
      0.6060794910306002,
      0.8174506245718198,
      -0.6209737670324058,
      0.5418026135651346,
      -0.6627430322278759,
      0.8760105906604521,
      -0.9198831681433264,
      -0.24527186623039804,
      -0.20850981559296966,
      0.267485560946908,
      -0.3846809576102972,
      -0.3557579352756155,
      0.4830891319235944,
      -0.8336049607566676,
      -0.8699005715069106,
      0.8998469371819338,
      0.9122801233283986,
      -0.6674909847565329,
      -0.4279967301317192,
      1.0405125295488715,
      -0.021209821362489195,
      0.1503781924757484,
      -0.7188848643952386,
      -0.34677649319518355,
      -0.526802176695672,
      0.863974417293522,
      -0.00554531057787458,
      0.4140545612655173,
      1.1083715916849144,
      0.7527516490093749,
      -0.1736033609332552,
      0.8859570427649526,
      0.6906366419248717,
      0.7626376691409544,
      0.6976842949864546,
      0.0066864872035630185,
      0.5020409895502758,
      -0.909656562299847,
      -0.794428598457962,
      0.4662481321823016,
      -0.9906846183885717,
      -0.8915453098929293,
      -0.8750530658150452,
      -0.646536654391668,
      0.64753829573659,
      0.34729299100184474,
      -0.3766705222941628,
      0.195497491940426,
      0.9124467583867827,
      -0.7369476742213223,
      -0.9435204554080074,
      0.6414079833312962,
      -0.17480429872392123,
      -0.9330856813329877,
      0.3490521925482397,
      0.29997224602958816,
      0.21183659437878444,
      0.18790928165463305,
      -0.7573582745246241,
      0.37947891691349045,
      -0.10139460911990339,
      -0.2066720514589939,
      0.07875843283649253,
      0.7726370493600878,
      -0.7302536086519141,
      -1.04570572860481,
      0.423560320850924,
      -0.08024816862001796,
      -1.0048054724468787,
      0.3228627412360632,
      -0.6033600918674729,
      -0.1391464323992604,
      0.6002304929831089,
      -0.788166001047516,
      -0.48731309426239877,
      0.970127308665707,
      -0.10759975583006799,
      0.7000675815187634,
      0.4550749173855817,
      0.8558425976115537,
      -0.22225589769285836,
      1.0369581709511242,
      -0.9880813948541456,
      -0.7931921843373266,
      -0.33711406051077103,
      0.33570596543326026,
      -0.4217944173835788,
      -0.08845362464498763,
      0.6631049791076071,
      0.8239657746127113,
      -0.3676680715680949,
      -0.7119312683004226,
      0.8215271832438837,
      0.7243985428202604,
      0.5317388286798945,
      -0.3719973793292763,
      0.9372350618105925,
      0.39878238632881,
      -0.16437367407338457,
      -0.9099822535718654,
      -0.3277060341549624,
      0.42610904626787227,
      0.48356086810940974,
      0.2486019247134068,
      -0.16967203340707734,
      -0.17136610865251645,
      -0.9299730595610087,
      -0.37671983138744425,
      -0.22512374558602496,
      -0.5432950054283079,
      -0.15784499120685175,
      -0.719066685473712,
      -0.04431126929668719,
      -0.23578469793905676,
      -0.5291487096739403,
      0.19944319915149672,
      0.24034413086537149,
      -0.8559081003258233,
      0.7763514486052038,
      -0.007569049464598132,
      0.6399459336242819,
      0.7534761050497011,
      0.9265985504720773,
      0.2628767552975825,
      0.20864910679239945,
      -0.6931096143820714,
      -0.753264699063797,
      0.8721731757758395,
      0.15508462784966243,
      -0.5488645964028649,
      -0.3545804693164507,
      0.13827372972865407,
      0.23978141951765752,
      0.7257260970062291,
      0.4385714918547725,
      -0.20258394357120868,
      0.3595691891350156,
      -0.8776053613294832,
      0.8484853852414664,
      0.6371116281418685,
      0.7757834356695745,
      -0.727102159160445,
      -0.7546808615878157,
      -0.42660450812203,
      -0.6370640756063941,
      0.3654327293612884,
      0.49414610582324464
    ],
    "Function_Type": "sinusoidal",
    "Training_Loss": 0.025393981317227535,
    "Validation_Loss": 0.024438390508294106,
    "Test_Loss": 0.02674950398504734,
    "Training_Time": 17.97684335708618
  },
  "0.5_2_polynomial": {
    "Optimizer": "SGD",
    "Feature_Dimension": 2,
    "Complexity_Level": "low",
    "Noise_Level": 0.5,
    "Hidden_Neurons": 16,
    "Weight_Bias_Values": [
      1.1962839365005493,
      1.516817331314087,
      -0.40965354442596436,
      -0.35043299198150635,
      1.2983437776565552,
      -1.3972764015197754,
      -0.761019229888916,
      -1.1069098711013794,
      1.0870410203933716,
      1.4414513111114502,
      -0.6236756443977356,
      -1.0085822343826294,
      -0.35226330161094666,
      -0.43317273259162903,
      1.021003246307373,
      -1.4182621240615845,
      -0.2748109996318817,
      0.1244795024394989,
      -0.32212331891059875,
      0.6899208426475525,
      0.35777613520622253,
      0.5970975160598755,
      -0.8312332034111023,
      0.8619877099990845,
      -0.2904607057571411,
      -0.8531707525253296,
      -1.0844613313674927,
      -0.06686165183782578,
      0.37528109550476074,
      -0.5711796879768372,
      0.09562838822603226,
      -0.9701918959617615,
      -0.4077731668949127,
      -0.35846656560897827,
      0.5285784006118774,
      0.05057850480079651,
      -0.3939223289489746,
      0.6344789862632751,
      0.4658011496067047,
      0.5528698563575745,
      -0.41550716757774353,
      0.6760387420654297,
      -0.5853118300437927,
      0.08067342638969421,
      -0.05925225466489792,
      0.48710814118385315,
      0.28635674715042114,
      -0.42975127696990967,
      0.4269445240497589,
      -0.18934962153434753,
      0.09977065771818161,
      -0.15846148133277893,
      -0.27966436743736267,
      0.4239710569381714,
      -0.3876039385795593,
      -0.2635848820209503,
      -0.09407317638397217,
      0.27636098861694336,
      -0.4737914502620697,
      -0.15625131130218506,
      0.009847749955952168,
      0.05432121455669403,
      0.528526246547699,
      -0.13619546592235565,
      0.16390161216259003
    ],
    "Function_Type": "polynomial",
    "Training_Loss": 0.002408248007255183,
    "Validation_Loss": 0.002697446383535862,
    "Test_Loss": 0.0027540094684809445,
    "Training_Time": 2.142420530319214
  },
  "0.5_2_sinusoidal": {
    "Optimizer": "SGD",
    "Feature_Dimension": 2,
    "Complexity_Level": "low",
    "Noise_Level": 0.5,
    "Hidden_Neurons": 16,
    "Weight_Bias_Values": [
      0.2688843309879303,
      1.0434738397598267,
      0.8120309114456177,
      -0.33924922347068787,
      -0.7225863337516785,
      1.5623118877410889,
      -0.4888210892677307,
      -1.0298792123794556,
      -0.6563407182693481,
      -1.0693961381912231,
      0.6923688054084778,
      0.42912253737449646,
      1.4658167362213135,
      -1.1438273191452026,
      0.512613832950592,
      -0.4874151051044464,
      -1.4793825149536133,
      1.068729043006897,
      -1.6192352771759033,
      1.3725557327270508,
      -0.25172996520996094,
      0.9736519455909729,
      0.02601519227027893,
      0.7524032592773438,
      1.2253636121749878,
      -1.0592210292816162,
      0.2886997163295746,
      1.6397534608840942,
      1.7057924270629883,
      -0.13695470988750458,
      1.0191066265106201,
      0.73192298412323,
      -0.5391954779624939,
      -0.4135804772377014,
      -0.06810016185045242,
      0.4302540421485901,
      0.17743757367134094,
      0.29827386140823364,
      -0.6437453031539917,
      -0.5024353861808777,
      -0.5350112318992615,
      0.585781991481781,
      0.5694774985313416,
      -0.4515317976474762,
      0.5295912623405457,
      0.4388071894645691,
      -0.5041040778160095,
      -0.3685298562049866,
      -0.3672349154949188,
      -0.542984664440155,
      -0.20615187287330627,
      -0.04119153693318367,
      0.10264111310243607,
      0.09854260832071304,
      0.34420067071914673,
      0.11229000985622406,
      0.28717607259750366,
      -0.24733808636665344,
      0.5223774909973145,
      -0.47600749135017395,
      -0.17543715238571167,
      0.2700254023075104,
      0.034986745566129684,
      -0.03259890154004097,
      0.3029332160949707
    ],
    "Function_Type": "sinusoidal",
    "Training_Loss": 0.02656606042926962,
    "Validation_Loss": 0.0254298884421587,
    "Test_Loss": 0.02571531683206558,
    "Training_Time": 8.057482957839966
  },
  "0.5_5_polynomial": {
    "Optimizer": "SGD",
    "Feature_Dimension": 5,
    "Complexity_Level": "low",
    "Noise_Level": 0.5,
    "Hidden_Neurons": 16,
    "Weight_Bias_Values": [
      -0.9638044238090515,
      0.9162237644195557,
      -1.0227166414260864,
      -0.4086848199367523,
      -0.2668495774269104,
      0.6886253952980042,
      0.8819484114646912,
      0.2515769302845001,
      -0.2528929114341736,
      -0.7919434309005737,
      0.014839019626379013,
      0.5564068555831909,
      0.23530113697052002,
      -0.7262294888496399,
      -0.3235775828361511,
      0.9984648823738098,
      0.23885828256607056,
      0.16388089954853058,
      -0.06960377097129822,
      0.492309033870697,
      -0.15872764587402344,
      -0.8293023109436035,
      -0.8883256912231445,
      0.9313311576843262,
      0.8601189255714417,
      -0.6957295536994934,
      -0.6318175792694092,
      -0.6524913907051086,
      0.48162487149238586,
      -0.22300663590431213,
      0.03542805835604668,
      0.4528214931488037,
      -0.6378090977668762,
      -0.5062421560287476,
      0.4920460283756256,
      -0.23088395595550537,
      -0.8717110753059387,
      0.0014318579342216253,
      -0.7935498356819153,
      -0.8702625036239624,
      0.08499901741743088,
      0.3744657635688782,
      0.7735879421234131,
      0.38235530257225037,
      0.5953157544136047,
      -0.9699195623397827,
      0.3301050364971161,
      -0.5434700846672058,
      -0.8948187232017517,
      0.4859165549278259,
      0.6323471665382385,
      0.25252389907836914,
      -0.48719608783721924,
      0.8615390658378601,
      -0.8827208876609802,
      0.17531543970108032,
      0.9825320839881897,
      -0.4982828199863434,
      0.7468699812889099,
      -0.6798937320709229,
      -0.8194385766983032,
      0.30682334303855896,
      0.6241604089736938,
      0.6848987340927124,
      -0.7036635279655457,
      0.11518733203411102,
      -1.0418587923049927,
      0.40830639004707336,
      0.24522992968559265,
      0.8928959369659424,
      0.620827853679657,
      0.0041402364149689674,
      -0.6434851884841919,
      -0.4875897765159607,
      0.8274450898170471,
      -1.0969611406326294,
      0.3812859356403351,
      0.6752269268035889,
      -0.9963151216506958,
      -0.04771755263209343,
      -0.33730214834213257,
      0.2419271320104599,
      -0.04265230521559715,
      -0.21616297960281372,
      0.4405011236667633,
      0.3081163465976715,
      0.15453198552131653,
      0.2686387598514557,
      -0.336346834897995,
      0.42056235671043396,
      -0.30371972918510437,
      -0.013109751045703888,
      -0.22498421370983124,
      0.32876017689704895,
      -0.45839664340019226,
      0.18607361614704132,
      -0.003196713048964739,
      -0.004719356074929237,
      -0.0005189426010474563,
      0.04261436313390732,
      0.029227057471871376,
      -0.03391719236969948,
      0.035999029874801636,
      -0.010162098333239555,
      0.028449390083551407,
      -0.006550075951963663,
      0.0144996652379632,
      0.009053231216967106,
      0.010852969251573086,
      -0.00671653775498271,
      -0.030858440324664116,
      -0.009072985500097275,
      0.4289514422416687
    ],
    "Function_Type": "polynomial",
    "Training_Loss": 0.001977373687127097,
    "Validation_Loss": 0.002101243147626519,
    "Test_Loss": 0.0025435414398089053,
    "Training_Time": 2.1337413787841797
  },
  "0.5_5_sinusoidal": {
    "Optimizer": "SGD",
    "Feature_Dimension": 5,
    "Complexity_Level": "low",
    "Noise_Level": 0.5,
    "Hidden_Neurons": 16,
    "Weight_Bias_Values": [
      -0.6317700743675232,
      -0.018627580255270004,
      1.1217377185821533,
      0.34849342703819275,
      0.4667358994483948,
      0.5095053911209106,
      0.4238426089286804,
      1.053339958190918,
      -0.326128214597702,
      -0.6140143871307373,
      -0.1053970605134964,
      -0.6195418238639832,
      -0.9463675022125244,
      0.7272946834564209,
      -0.30848386883735657,
      -0.3922254741191864,
      -0.04459430277347565,
      0.739445686340332,
      0.9254870414733887,
      0.11327529698610306,
      0.9132738709449768,
      0.07950733602046967,
      0.19184578955173492,
      -0.7089594602584839,
      0.7636125683784485,
      -0.6881872415542603,
      -0.6486324071884155,
      -0.42673948407173157,
      0.9369988441467285,
      -0.38019081950187683,
      -0.6779149174690247,
      -0.48073452711105347,
      -0.2690507173538208,
      -0.2953362464904785,
      0.6754107475280762,
      0.03136445954442024,
      -0.9344093203544617,
      -0.12357816845178604,
      0.14200864732265472,
      -0.9576366543769836,
      -0.2804899215698242,
      -0.21865148842334747,
      0.8041046857833862,
      -0.9968301653862,
      0.959683358669281,
      0.2548098862171173,
      0.9437845945358276,
      -0.5383481979370117,
      -0.009609140455722809,
      0.6397260427474976,
      0.22035904228687286,
      -0.2780599296092987,
      -0.6520557403564453,
      0.14588522911071777,
      -0.14608412981033325,
      0.6867046356201172,
      -0.26465949416160583,
      -0.7456206679344177,
      -0.36075231432914734,
      0.11734684556722641,
      -0.34297576546669006,
      0.16515439748764038,
      -0.8086425065994263,
      0.21946701407432556,
      1.0314135551452637,
      -0.9292536377906799,
      0.5590675473213196,
      0.6082876324653625,
      -0.5104712247848511,
      0.9306129217147827,
      -0.7838805913925171,
      0.1341973841190338,
      0.6635982990264893,
      0.45063892006874084,
      0.7537861466407776,
      0.39465630054473877,
      -0.9293107390403748,
      -0.6081739068031311,
      -0.17231114208698273,
      0.6195321679115295,
      0.36966609954833984,
      -0.34956952929496765,
      0.3111437261104584,
      -0.35359448194503784,
      -0.14237239956855774,
      0.12815073132514954,
      0.1703796684741974,
      -0.07004237174987793,
      0.4170927107334137,
      -0.19654138386249542,
      -0.12824693322181702,
      0.1887839436531067,
      -0.29925864934921265,
      0.024785839021205902,
      -0.1618707776069641,
      0.3293272852897644,
      0.0015423053409904242,
      -0.005645721685141325,
      -0.06673423200845718,
      0.004709094297140837,
      -0.0030362228862941265,
      0.026440812274813652,
      0.005076748784631491,
      0.010146272368729115,
      0.009710604324936867,
      -0.00941442884504795,
      0.11014776676893234,
      -0.023850878700613976,
      0.019803212955594063,
      -0.0020586997270584106,
      -0.015499182976782322,
      -0.009086253121495247,
      0.48280829191207886
    ],
    "Function_Type": "sinusoidal",
    "Training_Loss": 0.02719127954068509,
    "Validation_Loss": 0.024997025728225708,
    "Test_Loss": 0.032597480714321135,
    "Training_Time": 2.2341816425323486
  },
  "0.5_10_polynomial": {
    "Optimizer": "SGD",
    "Feature_Dimension": 10,
    "Complexity_Level": "low",
    "Noise_Level": 0.5,
    "Hidden_Neurons": 16,
    "Weight_Bias_Values": [
      -0.18989819288253784,
      -0.5208255052566528,
      0.29759469628334045,
      -0.7462752461433411,
      -0.3125862181186676,
      0.14572861790657043,
      0.31509968638420105,
      0.5830660462379456,
      0.579072892665863,
      -0.030879003927111626,
      0.40275171399116516,
      0.4704444706439972,
      -0.43413710594177246,
      0.2623838186264038,
      0.16006995737552643,
      0.7926807403564453,
      -0.34161627292633057,
      -0.365962952375412,
      -0.5992972254753113,
      0.2963104844093323,
      -0.627880334854126,
      0.10575900226831436,
      -0.3041704595088959,
      0.6989917159080505,
      0.6580309867858887,
      0.6157578825950623,
      -0.21092134714126587,
      -0.49789923429489136,
      -0.24650052189826965,
      -0.2882187068462372,
      0.10766608268022537,
      0.1934419423341751,
      -0.41564226150512695,
      0.46901649236679077,
      0.5736178159713745,
      0.15466295182704926,
      -0.3793395161628723,
      0.0276023019105196,
      -0.43998289108276367,
      -0.055330146104097366,
      0.6486387252807617,
      0.5447501540184021,
      0.6137990951538086,
      0.510370671749115,
      -0.24640358984470367,
      0.09920019656419754,
      -0.03615271672606468,
      0.14608876407146454,
      0.7065244317054749,
      0.4449610412120819,
      -0.005127506330609322,
      -0.2582259178161621,
      0.3398905098438263,
      0.5791350603103638,
      0.608200192451477,
      -0.2289642095565796,
      -0.42104047536849976,
      0.7396735548973083,
      -0.4603966176509857,
      -0.20641401410102844,
      -0.47890526056289673,
      0.005787682719528675,
      0.06212645769119263,
      -0.2797256410121918,
      0.21893295645713806,
      -0.6743789911270142,
      0.55154949426651,
      -0.33109474182128906,
      0.35362228751182556,
      -0.40791890025138855,
      -0.7030061483383179,
      0.2539029121398926,
      0.22402751445770264,
      -0.6813250780105591,
      -0.16248628497123718,
      -0.51691073179245,
      0.17218370735645294,
      0.5385866165161133,
      0.22334173321723938,
      0.45118749141693115,
      0.5211650729179382,
      0.5982745289802551,
      -0.5203162431716919,
      0.5177472829818726,
      -0.666793704032898,
      -0.1580110788345337,
      -0.2140188366174698,
      -0.3099703788757324,
      0.2089022845029831,
      0.2992914319038391,
      0.2528819441795349,
      -0.29537880420684814,
      0.6432380676269531,
      0.3926801085472107,
      0.19494836032390594,
      0.5951385498046875,
      0.2422650158405304,
      0.06929321587085724,
      0.5901718735694885,
      -0.09781239926815033,
      -0.13301102817058563,
      -0.468517541885376,
      0.26228052377700806,
      0.015159924514591694,
      0.4813593924045563,
      0.4320208430290222,
      0.24776814877986908,
      -0.5045154690742493,
      -0.22224299609661102,
      0.13590377569198608,
      -0.7454382181167603,
      0.41861432790756226,
      -0.1837478131055832,
      -0.09052066504955292,
      0.008175506256520748,
      -0.1610228717327118,
      -0.06777210533618927,
      -0.6261812448501587,
      0.6031517386436462,
      0.22663526237010956,
      -0.4172561466693878,
      0.17816974222660065,
      -0.18907876312732697,
      0.5054914355278015,
      0.6798946857452393,
      0.08833099901676178,
      0.2437858283519745,
      0.192346453666687,
      -0.0982484370470047,
      -0.42542409896850586,
      0.36147168278694153,
      0.7333054542541504,
      -0.3917560577392578,
      0.28625941276550293,
      0.5998846888542175,
      -0.42458611726760864,
      0.7622600197792053,
      0.6271628737449646,
      0.5048359632492065,
      0.4750414192676544,
      0.3001501262187958,
      0.07814697176218033,
      -0.22615213692188263,
      -0.23758885264396667,
      0.16602718830108643,
      0.4363159239292145,
      -0.31722187995910645,
      -0.6666533350944519,
      -0.6153067350387573,
      0.2780935764312744,
      0.36142927408218384,
      0.003850066103041172,
      -0.7068170309066772,
      -0.6544162631034851,
      -0.5468688011169434,
      -0.6209444999694824,
      0.06933391839265823,
      -0.17582884430885315,
      -0.7012808918952942,
      0.25369757413864136,
      0.25124767422676086,
      -0.17725396156311035,
      -0.16844822466373444,
      0.01181226409971714,
      0.10482778400182724,
      0.21703095734119415,
      0.07116691768169403,
      0.24385599792003632,
      0.08439341187477112,
      -0.0136198028922081,
      -0.02238604426383972,
      0.28388190269470215,
      0.11328843235969543,
      -0.29700347781181335,
      0.06470002979040146,
      -0.0671316385269165,
      0.01448491495102644,
      0.056558724492788315,
      -0.027444785460829735,
      -0.02439909242093563,
      0.02516224980354309,
      -0.004752819426357746,
      -0.03633607551455498,
      -0.005331763066351414,
      -0.0157335102558136,
      0.008102069608867168,
      0.03713062033057213,
      0.007222306448966265,
      0.016137223690748215,
      0.014151833951473236,
      -0.030416272580623627,
      -0.00039281099452637136,
      0.44300681352615356
    ],
    "Function_Type": "polynomial",
    "Training_Loss": 0.006051178704100576,
    "Validation_Loss": 0.005910753086209297,
    "Test_Loss": 0.006630464782938361,
    "Training_Time": 2.051297187805176
  },
  "0.5_10_sinusoidal": {
    "Optimizer": "SGD",
    "Feature_Dimension": 10,
    "Complexity_Level": "low",
    "Noise_Level": 0.5,
    "Hidden_Neurons": 16,
    "Weight_Bias_Values": [
      0.28753429651260376,
      -0.04161759465932846,
      0.5257176160812378,
      -0.6013280749320984,
      -0.14755047857761383,
      -0.5753776431083679,
      0.4529428780078888,
      0.5002163052558899,
      0.09105554223060608,
      -0.18518531322479248,
      0.6431803107261658,
      -0.14705215394496918,
      0.1520974338054657,
      -0.05575362220406532,
      0.14998528361320496,
      -0.29935672879219055,
      -0.5706682205200195,
      0.03194304183125496,
      -0.5093849301338196,
      0.6712130904197693,
      -0.6079870462417603,
      -0.7119101881980896,
      -0.10234260559082031,
      -0.5374572277069092,
      -0.09250377118587494,
      -0.4091988801956177,
      -0.5807526111602783,
      -0.012587150558829308,
      -0.3091875910758972,
      -0.4742239713668823,
      -0.5544090867042542,
      0.5578911304473877,
      0.23486332595348358,
      0.4298842251300812,
      0.2787465751171112,
      -0.21104387938976288,
      -0.6488007307052612,
      -0.27010250091552734,
      0.24208123981952667,
      0.7422443628311157,
      0.7075461745262146,
      0.637880265712738,
      0.06055809557437897,
      0.21665449440479279,
      -0.12099381536245346,
      0.5606576800346375,
      0.15765036642551422,
      -0.7033668756484985,
      0.2250632643699646,
      -0.5072997212409973,
      -0.10003575682640076,
      0.1017749086022377,
      0.05562053993344307,
      -0.2909931242465973,
      -0.7684498429298401,
      0.3236221373081207,
      -0.40684419870376587,
      0.531011164188385,
      -0.3517821133136749,
      0.5798853039741516,
      0.4085068106651306,
      -0.17927105724811554,
      0.7164392471313477,
      -0.5086149573326111,
      0.3209032714366913,
      -0.4933149218559265,
      0.7730138301849365,
      0.10505515336990356,
      0.43759316205978394,
      -0.45842278003692627,
      0.31051450967788696,
      -0.7537572383880615,
      0.15938737988471985,
      -0.0685947835445404,
      -0.5686107873916626,
      0.4236256182193756,
      0.16881747543811798,
      -0.027838241308927536,
      0.12520192563533783,
      0.20267872512340546,
      -0.29630160331726074,
      -0.6771174669265747,
      0.3214588463306427,
      -0.07164206355810165,
      -0.23936812579631805,
      0.7144812941551208,
      -0.5644863843917847,
      0.16575805842876434,
      0.28761008381843567,
      -0.4937845766544342,
      0.21801936626434326,
      -0.006034833379089832,
      0.36576294898986816,
      -0.619709849357605,
      0.2590731978416443,
      -0.5278729200363159,
      0.17474578320980072,
      0.16866935789585114,
      -0.7049630284309387,
      -0.5051968693733215,
      -0.5176329612731934,
      0.5786876082420349,
      -0.4852931499481201,
      -0.33250105381011963,
      0.7228033542633057,
      0.17783574759960175,
      -0.16152343153953552,
      0.6569152474403381,
      -0.5230981707572937,
      -0.27613362669944763,
      0.7224646806716919,
      -0.20602628588676453,
      -0.6985058188438416,
      0.3542102575302124,
      -0.2488093376159668,
      -0.2585417628288269,
      -0.5166608691215515,
      -0.14380966126918793,
      0.41067060828208923,
      0.10051243007183075,
      -0.08968654274940491,
      0.11720094829797745,
      -0.7504543662071228,
      0.5824368596076965,
      -0.4102635383605957,
      0.11081208288669586,
      -0.013732466846704483,
      -0.05849168077111244,
      -0.02337544783949852,
      0.4241010844707489,
      0.3141457438468933,
      -0.1207454726099968,
      -0.5717839002609253,
      -0.5178883671760559,
      0.5995555520057678,
      0.05082957074046135,
      0.7856049537658691,
      0.4217001795768738,
      -0.08899528533220291,
      -0.31251469254493713,
      -0.5372401475906372,
      0.8248580098152161,
      0.36222460865974426,
      -0.6722705364227295,
      -0.5034698247909546,
      -0.2834025025367737,
      0.34316909313201904,
      0.6631197333335876,
      -0.14983783662319183,
      0.7330712676048279,
      0.24866676330566406,
      0.5790650844573975,
      0.6216539144515991,
      -0.5702001452445984,
      -0.25366947054862976,
      -0.27922385931015015,
      0.355119913816452,
      -0.6418507695198059,
      0.45310959219932556,
      0.22449205815792084,
      -0.12087687849998474,
      0.01822846382856369,
      0.3172205090522766,
      -0.07492363452911377,
      -0.08250310271978378,
      -0.06771740317344666,
      -0.198012113571167,
      -0.07091549038887024,
      -0.05571344494819641,
      0.26163363456726074,
      0.1378929167985916,
      0.0045334710739552975,
      0.2808871567249298,
      0.10453573614358902,
      0.2964169979095459,
      -0.00254182331264019,
      0.009806101210415363,
      -0.00481211906298995,
      0.007201040163636208,
      -0.004433475434780121,
      -0.0035972632467746735,
      0.0066032009199261665,
      -0.01281213853508234,
      0.00014930806355550885,
      -0.0002623726613819599,
      0.006598378997296095,
      0.0026766755618155003,
      0.0009713487233966589,
      0.007789781782776117,
      0.00215517682954669,
      -0.006029290147125721,
      0.0012535499408841133,
      0.5269503593444824
    ],
    "Function_Type": "sinusoidal",
    "Training_Loss": 0.020318116950379175,
    "Validation_Loss": 0.021650217846035956,
    "Test_Loss": 0.02018517591059208,
    "Training_Time": 2.0754504203796387
  },
  "1.0_2_polynomial": {
    "Optimizer": "SGD",
    "Feature_Dimension": 2,
    "Complexity_Level": "medium",
    "Noise_Level": 1.0,
    "Hidden_Neurons": 16,
    "Weight_Bias_Values": [
      0.9925206899642944,
      -0.6956030130386353,
      1.0825873613357544,
      -1.115179181098938,
      -0.6571817994117737,
      -1.2999022006988525,
      -0.2403992861509323,
      1.084984540939331,
      -0.5079248547554016,
      0.8225533366203308,
      -1.0728569030761719,
      0.1140383929014206,
      0.3292451798915863,
      0.12324050813913345,
      -1.6812189817428589,
      -1.0741292238235474,
      -0.472980260848999,
      -0.8656191825866699,
      -1.1585514545440674,
      -0.07798312604427338,
      -1.488895058631897,
      0.6695415377616882,
      -0.6136683821678162,
      1.615203619003296,
      -1.4843260049819946,
      1.5861315727233887,
      1.2420222759246826,
      -1.2187732458114624,
      -1.2249517440795898,
      0.22240832448005676,
      -1.0167330503463745,
      -0.15613609552383423,
      -0.46087726950645447,
      0.4746561050415039,
      0.30796554684638977,
      0.4727446734905243,
      0.2913375198841095,
      -0.7222706079483032,
      -0.091801218688488,
      -0.1505431830883026,
      0.21257080137729645,
      0.24860171973705292,
      -0.5139277577400208,
      0.4341631829738617,
      -0.6762838363647461,
      -0.11343307793140411,
      0.3456662893295288,
      -0.6844002604484558,
      0.3228469491004944,
      0.21191281080245972,
      -0.2074444591999054,
      0.265842467546463,
      0.1528962105512619,
      0.17010654509067535,
      -0.028943205252289772,
      0.044361911714076996,
      0.26779696345329285,
      0.10116302967071533,
      -0.06973403692245483,
      -0.15874716639518738,
      -0.03077717125415802,
      -0.33066385984420776,
      -0.07916438579559326,
      -0.10247834026813507,
      -0.04914764687418938
    ],
    "Function_Type": "polynomial",
    "Training_Loss": 0.004788999085907231,
    "Validation_Loss": 0.0037356137298047544,
    "Test_Loss": 0.0063659558072686195,
    "Training_Time": 2.0889840126037598
  },
  "1.0_2_sinusoidal": {
    "Optimizer": "SGD",
    "Feature_Dimension": 2,
    "Complexity_Level": "low",
    "Noise_Level": 1.0,
    "Hidden_Neurons": 16,
    "Weight_Bias_Values": [
      -0.024291666224598885,
      -1.4791544675827026,
      0.006183156277984381,
      -1.4927048683166504,
      -1.5995500087738037,
      -0.4483743906021118,
      -0.954260528087616,
      0.6031776070594788,
      -0.416341096162796,
      -0.7980425357818604,
      0.4284932613372803,
      -1.701107144355774,
      -0.6409124732017517,
      -0.700827419757843,
      -0.783631443977356,
      1.248542308807373,
      -1.523220419883728,
      -1.2360665798187256,
      0.12604199349880219,
      1.0744811296463013,
      -0.557452380657196,
      -0.6471203565597534,
      -0.562237024307251,
      -1.0666496753692627,
      -1.060594081878662,
      0.12503290176391602,
      -1.6407155990600586,
      0.024789797142148018,
      0.9740569591522217,
      0.7805829644203186,
      0.845562219619751,
      -0.779214084148407,
      0.27047112584114075,
      -0.1393791139125824,
      0.426289439201355,
      -0.42426711320877075,
      -0.07058010250329971,
      0.09984315931797028,
      0.4840632379055023,
      0.39181771874427795,
      0.27606678009033203,
      0.6326419115066528,
      -0.3918910622596741,
      -0.19199900329113007,
      0.14149035513401031,
      -0.6981898546218872,
      0.07386217266321182,
      0.04783579334616661,
      -0.4084765911102295,
      0.11640264093875885,
      -0.26479166746139526,
      -0.21806423366069794,
      -0.07860349863767624,
      0.04740101471543312,
      -0.2224130779504776,
      -0.12025558948516846,
      0.4759301543235779,
      0.47950589656829834,
      -0.288487046957016,
      0.09250487387180328,
      -0.43904587626457214,
      0.5151306390762329,
      -0.3862122893333435,
      0.27938151359558105,
      0.5545415282249451
    ],
    "Function_Type": "sinusoidal",
    "Training_Loss": 0.01761110190471465,
    "Validation_Loss": 0.018773761019110678,
    "Test_Loss": 0.02286432832479477,
    "Training_Time": 2.1194393634796143
  },
  "1.0_5_polynomial": {
    "Optimizer": "SGD",
    "Feature_Dimension": 5,
    "Complexity_Level": "low",
    "Noise_Level": 1.0,
    "Hidden_Neurons": 16,
    "Weight_Bias_Values": [
      0.8307706117630005,
      -0.570956289768219,
      0.23893925547599792,
      -0.5592552423477173,
      -0.29342320561408997,
      -0.9370636940002441,
      0.23480431735515594,
      -0.26687029004096985,
      -0.4986867904663086,
      0.12831036746501923,
      0.005485469941049814,
      0.1118854209780693,
      0.2679561376571655,
      -0.6613855957984924,
      -0.27367153763771057,
      0.2460918128490448,
      0.785420298576355,
      0.04445602372288704,
      0.027655599638819695,
      -0.23675692081451416,
      -0.4716692864894867,
      0.572977602481842,
      0.5756365656852722,
      -0.5022834539413452,
      -0.5287095308303833,
      0.6505688428878784,
      0.8774166107177734,
      1.0198991298675537,
      -0.10858003795146942,
      0.08969064056873322,
      -0.5431713461875916,
      0.800230085849762,
      0.28734880685806274,
      0.6703311204910278,
      0.20243161916732788,
      0.6568829417228699,
      -0.8755598664283752,
      -0.710463285446167,
      0.3483721911907196,
      -0.011340275406837463,
      -0.3377673029899597,
      0.6632037162780762,
      0.3083169758319855,
      -0.8386097550392151,
      0.2054300308227539,
      0.7947999238967896,
      0.8902584910392761,
      0.5207165479660034,
      1.0658856630325317,
      0.04860060662031174,
      -0.593363881111145,
      0.7322254776954651,
      0.33853036165237427,
      -0.27478015422821045,
      0.8222065567970276,
      0.2067558914422989,
      0.734683632850647,
      0.40696507692337036,
      0.4939388036727905,
      0.008939510211348534,
      -0.3730762004852295,
      -0.8684909343719482,
      0.5538305640220642,
      0.7445998191833496,
      -0.6181847453117371,
      -0.6614436507225037,
      0.5962222814559937,
      -0.870951771736145,
      0.2975916564464569,
      1.045667052268982,
      0.4371626377105713,
      -0.7760271430015564,
      -0.9352957606315613,
      -0.6516380906105042,
      0.23576416075229645,
      -0.6918531060218811,
      0.36562836170196533,
      -0.9517285227775574,
      1.0169988870620728,
      -0.38929876685142517,
      0.2643511891365051,
      -0.15872785449028015,
      0.3349228799343109,
      -0.1254928708076477,
      -0.353474885225296,
      0.3718585669994354,
      -0.005470507312566042,
      0.14542008936405182,
      -0.33294111490249634,
      -0.14306658506393433,
      0.10169915109872818,
      -0.017620006576180458,
      -0.29816195368766785,
      -0.1080051064491272,
      -0.2730918228626251,
      -0.29089561104774475,
      0.004403646104037762,
      -0.04394092410802841,
      -0.03474266454577446,
      0.02666502259671688,
      0.0012554707936942577,
      0.024209706112742424,
      0.041549235582351685,
      0.009178387932479382,
      0.02461649663746357,
      0.0730946883559227,
      -0.0004884177469648421,
      -0.13366585969924927,
      -0.008913992904126644,
      0.014878053218126297,
      -0.004420569632202387,
      -0.003808332374319434,
      0.4531250298023224
    ],
    "Function_Type": "polynomial",
    "Training_Loss": 0.004180152149109001,
    "Validation_Loss": 0.004692841414362192,
    "Test_Loss": 0.004497720766812563,
    "Training_Time": 2.150254964828491
  },
  "1.0_5_sinusoidal": {
    "Optimizer": "SGD",
    "Feature_Dimension": 5,
    "Complexity_Level": "low",
    "Noise_Level": 1.0,
    "Hidden_Neurons": 16,
    "Weight_Bias_Values": [
      -0.6949320435523987,
      0.0415792390704155,
      0.756453275680542,
      0.15786592662334442,
      0.05371060594916344,
      -0.5218246579170227,
      -1.0100512504577637,
      0.8942365646362305,
      0.3444727957248688,
      -0.96934574842453,
      0.3233911395072937,
      -0.9828575849533081,
      0.020308716222643852,
      0.577701210975647,
      0.49580416083335876,
      -0.47752490639686584,
      -0.07477366924285889,
      -0.4330596625804901,
      0.7829273343086243,
      -0.7995761632919312,
      0.252528578042984,
      -0.13870017230510712,
      -0.5192453265190125,
      0.05252483859658241,
      0.2750100791454315,
      -1.037697434425354,
      -0.3274722099304199,
      1.02877938747406,
      -0.1469343602657318,
      0.1936517208814621,
      -0.034879572689533234,
      0.4035298228263855,
      0.8447291851043701,
      -0.33817002177238464,
      -0.5323421359062195,
      -0.5280291438102722,
      -0.2712186574935913,
      0.7698819041252136,
      0.2722568213939667,
      -0.8715471625328064,
      -0.01935167983174324,
      0.021804267540574074,
      0.9590432047843933,
      0.04600408300757408,
      -0.6340168714523315,
      0.13522909581661224,
      -0.641523540019989,
      -0.7054370641708374,
      -0.9811174869537354,
      -0.5589433312416077,
      -0.05152791738510132,
      -0.46080127358436584,
      0.7128649353981018,
      -0.9948466420173645,
      0.15657025575637817,
      -0.45210593938827515,
      0.8864789605140686,
      -0.226652130484581,
      -0.838753879070282,
      0.34823471307754517,
      0.05932610109448433,
      -0.4524388015270233,
      0.6655376553535461,
      0.08357693254947662,
      -0.337373822927475,
      -0.7799688577651978,
      -0.12345976382493973,
      0.8068732023239136,
      0.3068626821041107,
      -0.013505948707461357,
      -0.748465895652771,
      0.03470712900161743,
      0.8041983842849731,
      -0.07054281234741211,
      0.10603144019842148,
      -0.6668569445610046,
      -0.08957204222679138,
      -0.8078458905220032,
      1.0561054944992065,
      -1.021651268005371,
      0.3199368417263031,
      0.10337892174720764,
      0.3058817386627197,
      -0.3030537962913513,
      0.35143351554870605,
      -0.1527147889137268,
      -0.2957296073436737,
      -0.272439569234848,
      -0.12000348418951035,
      0.10990721732378006,
      0.1996210217475891,
      0.3265066146850586,
      -0.09758121520280838,
      0.08844442665576935,
      0.07484790682792664,
      -0.19661961495876312,
      0.36194491386413574,
      -0.00566136883571744,
      -0.009605719707906246,
      0.08898820728063583,
      0.036982983350753784,
      0.1219387799501419,
      0.03223701938986778,
      0.011938054114580154,
      -0.05008145794272423,
      0.011496976017951965,
      -0.005011621862649918,
      0.0014025402488186955,
      0.0486588254570961,
      -0.21493446826934814,
      -0.2873401343822479,
      -0.05049987509846687,
      0.37168174982070923
    ],
    "Function_Type": "sinusoidal",
    "Training_Loss": 0.026027202267538418,
    "Validation_Loss": 0.02623048350214958,
    "Test_Loss": 0.03271365351974964,
    "Training_Time": 2.2500131130218506
  },
  "1.0_10_polynomial": {
    "Optimizer": "SGD",
    "Feature_Dimension": 10,
    "Complexity_Level": "low",
    "Noise_Level": 1.0,
    "Hidden_Neurons": 16,
    "Weight_Bias_Values": [
      0.15034237504005432,
      0.24130100011825562,
      0.7052342295646667,
      -0.12300802767276764,
      0.6647828221321106,
      -0.3669200539588928,
      -0.1285172998905182,
      -0.4832476079463959,
      0.3075454831123352,
      -0.684867799282074,
      -0.5607826709747314,
      0.07018833607435226,
      0.653443455696106,
      -0.31335824728012085,
      -0.000616694800555706,
      -0.1725522130727768,
      -0.009171570651233196,
      0.37016692757606506,
      -0.5601540803909302,
      0.5931679010391235,
      -0.5305490493774414,
      0.3522070348262787,
      -0.41220787167549133,
      0.6766709089279175,
      0.0072702267207205296,
      0.7310678362846375,
      0.047865886241197586,
      -0.19382743537425995,
      -0.15631899237632751,
      0.660534143447876,
      0.08947217464447021,
      -0.6682751774787903,
      -0.24751009047031403,
      0.4953153431415558,
      -0.11041110008955002,
      -0.6251683831214905,
      0.6606929898262024,
      0.43249794840812683,
      0.43416333198547363,
      0.4042120575904846,
      0.17870770394802094,
      0.6633777618408203,
      -0.6221488118171692,
      0.07203822582960129,
      -0.32288360595703125,
      0.47923359274864197,
      0.38426098227500916,
      -0.43802884221076965,
      -0.281141996383667,
      0.6160665154457092,
      -0.6834872961044312,
      -0.20867684483528137,
      0.1222345158457756,
      -0.47972461581230164,
      0.1345786601305008,
      0.5551325082778931,
      0.26983633637428284,
      0.48167040944099426,
      0.1384444534778595,
      -0.6557062268257141,
      -0.7318239808082581,
      0.584930956363678,
      -0.08837799727916718,
      -0.40666669607162476,
      -0.7269258499145508,
      0.6932121515274048,
      -0.49194592237472534,
      -0.6840430498123169,
      0.2890951335430145,
      0.5912519097328186,
      -0.4195505678653717,
      -0.5383858680725098,
      -0.7664075493812561,
      -0.020735226571559906,
      0.22764852643013,
      -0.29129859805107117,
      0.17082655429840088,
      0.3553445041179657,
      0.1973392218351364,
      0.004077224992215633,
      0.13791155815124512,
      0.051762472838163376,
      0.30385175347328186,
      0.4079607129096985,
      0.20223751664161682,
      -0.48701849579811096,
      0.21693040430545807,
      -0.10108642280101776,
      -0.5135014653205872,
      0.5929847359657288,
      -0.5394092202186584,
      0.5397292971611023,
      -0.2029801905155182,
      -0.5517615675926208,
      -0.31171920895576477,
      0.08952923119068146,
      -0.34457725286483765,
      -0.15547093749046326,
      -0.027851652354002,
      -0.20140908658504486,
      -0.29529818892478943,
      0.1922008991241455,
      0.5537075996398926,
      -0.15472489595413208,
      0.5163362622261047,
      0.07979382574558258,
      -0.5345693230628967,
      0.1366155594587326,
      -0.46436721086502075,
      -0.4943617284297943,
      -0.14509017765522003,
      0.15562087297439575,
      -0.4366723299026489,
      -0.5093856453895569,
      0.10466964542865753,
      0.3748810887336731,
      0.06728070229291916,
      0.5108556747436523,
      0.34007176756858826,
      -0.23886777460575104,
      -0.48630785942077637,
      -0.7007932662963867,
      -0.6163396835327148,
      0.630227267742157,
      0.0736406147480011,
      -0.3286784291267395,
      -0.22070619463920593,
      -0.041974958032369614,
      0.5988713502883911,
      -0.39677292108535767,
      -0.2050224393606186,
      0.2001911699771881,
      0.4490917921066284,
      -0.5152905583381653,
      -0.2192135900259018,
      0.6998170018196106,
      -0.5429545640945435,
      -0.2657195031642914,
      -0.5348029732704163,
      0.24879984557628632,
      -0.5013808012008667,
      -0.42872264981269836,
      -0.08756376057863235,
      0.6227964758872986,
      -0.29716312885284424,
      0.5571143627166748,
      0.09694622457027435,
      0.09622283279895782,
      -0.20582284033298492,
      0.009921630844473839,
      -0.4502102732658386,
      -0.32502415776252747,
      -0.18627268075942993,
      0.6346427798271179,
      -0.7386505007743835,
      -0.6392994523048401,
      0.3350812792778015,
      -0.011953228153288364,
      0.5971825122833252,
      -0.1585407704114914,
      0.02945413626730442,
      -0.24376364052295685,
      -0.2442164123058319,
      0.21139591932296753,
      0.29466235637664795,
      0.14464206993579865,
      0.09018097072839737,
      -0.04916460067033768,
      0.04274497926235199,
      -0.05068477988243103,
      0.23859722912311554,
      -0.18568959832191467,
      0.24105478823184967,
      -0.1811913102865219,
      -0.04777679592370987,
      -0.21811027824878693,
      -0.0028119944036006927,
      0.00972668081521988,
      0.01047411747276783,
      0.03146194666624069,
      0.008252417668700218,
      -0.00043742696288973093,
      0.007622397504746914,
      -0.03712593764066696,
      -0.013195270672440529,
      -0.04617910832166672,
      -0.009841223247349262,
      0.03649603947997093,
      -0.008786284364759922,
      0.011379561387002468,
      0.005150856450200081,
      -0.018797824159264565,
      0.5393335819244385
    ],
    "Function_Type": "polynomial",
    "Training_Loss": 0.007742725926536051,
    "Validation_Loss": 0.008066523727029562,
    "Test_Loss": 0.009467593114823102,
    "Training_Time": 2.2585222721099854
  },
  "1.0_10_sinusoidal": {
    "Optimizer": "SGD",
    "Feature_Dimension": 10,
    "Complexity_Level": "low",
    "Noise_Level": 1.0,
    "Hidden_Neurons": 16,
    "Weight_Bias_Values": [
      0.16243614256381989,
      -0.2415722906589508,
      -0.5221856236457825,
      0.15724557638168335,
      0.5692619681358337,
      -0.3618733584880829,
      0.6900461912155151,
      0.1818319857120514,
      0.23181746900081635,
      0.32624971866607666,
      0.09408749639987946,
      -0.19548241794109344,
      -0.006028461270034313,
      -0.6031444668769836,
      -0.6871529817581177,
      -0.06757428497076035,
      -0.04613388329744339,
      0.37011367082595825,
      0.6975222229957581,
      -0.6465551257133484,
      0.036878552287817,
      -0.08687987178564072,
      -0.18802250921726227,
      0.4233607351779938,
      -0.07105010747909546,
      0.57953941822052,
      -0.3118109703063965,
      0.5062394738197327,
      -0.7295128107070923,
      -0.602308452129364,
      -0.1370178759098053,
      -0.018967345356941223,
      -0.08200004696846008,
      0.5757536888122559,
      0.6453153491020203,
      -0.6503086090087891,
      0.15789411962032318,
      0.7083602547645569,
      0.2229401022195816,
      0.21032170951366425,
      -0.1491405963897705,
      -0.23798581957817078,
      -0.5932039618492126,
      0.496847003698349,
      -0.628691554069519,
      -0.062329597771167755,
      -0.39437881112098694,
      -0.057407647371292114,
      -0.29938340187072754,
      -0.2433435171842575,
      0.37046071887016296,
      0.6042994260787964,
      -0.7512925863265991,
      -0.06999510526657104,
      -0.6200183033943176,
      0.2850031554698944,
      0.20114357769489288,
      -0.6540428996086121,
      0.4340588450431824,
      -0.6475300192832947,
      0.6786930561065674,
      0.5454095602035522,
      -0.10048620402812958,
      0.09906987100839615,
      -0.590793788433075,
      -0.15407000482082367,
      -0.5991935729980469,
      -0.7156122922897339,
      0.5711418390274048,
      0.4540499746799469,
      -0.09979727864265442,
      0.08269549906253815,
      0.1994924545288086,
      -0.49204790592193604,
      0.4498707950115204,
      -0.39846429228782654,
      0.4604041576385498,
      -0.45308414101600647,
      -0.5878403186798096,
      0.23686641454696655,
      0.15857627987861633,
      -0.04168567806482315,
      -0.29274681210517883,
      -0.09169623255729675,
      -0.2714131474494934,
      0.40961143374443054,
      -0.008193857967853546,
      0.7391259074211121,
      -0.20847395062446594,
      -0.4990542531013489,
      -0.1684335619211197,
      0.08451712131500244,
      -0.7478938698768616,
      -0.3412155508995056,
      0.5450955033302307,
      0.40409067273139954,
      0.021562691777944565,
      0.5945625305175781,
      -0.3376765549182892,
      -0.25421005487442017,
      -0.24649029970169067,
      -0.06843744963407516,
      -0.3586300313472748,
      -0.5909931063652039,
      0.6477869749069214,
      -0.4275777339935303,
      0.6820278167724609,
      -0.024885427206754684,
      0.07378269731998444,
      0.4585459232330322,
      0.38344335556030273,
      -0.7264400720596313,
      0.7449328899383545,
      -0.36225980520248413,
      -0.4205571413040161,
      0.1634591519832611,
      0.1727951020002365,
      -0.25025877356529236,
      0.541439950466156,
      -0.3209828734397888,
      -0.4455622136592865,
      0.7319607138633728,
      -0.47036951780319214,
      -0.11822092533111572,
      0.6862714290618896,
      0.10890588164329529,
      0.280965656042099,
      0.4880013167858124,
      -0.40632086992263794,
      0.5391107797622681,
      -0.20900443196296692,
      -0.0789119303226471,
      -0.20281843841075897,
      0.29048866033554077,
      0.6382073163986206,
      -0.6936764121055603,
      0.194237619638443,
      0.6589447259902954,
      -0.470978707075119,
      -0.5088008046150208,
      0.17698639631271362,
      0.029222173616290092,
      0.27886420488357544,
      0.06326683610677719,
      -0.07998359203338623,
      0.10511551797389984,
      -0.424063116312027,
      0.030605576932430267,
      0.0431213341653347,
      0.5159479975700378,
      0.3998066782951355,
      0.7086818218231201,
      -0.2582993805408478,
      -0.12949137389659882,
      -0.6846847534179688,
      -0.45727312564849854,
      -0.19144976139068604,
      0.1252334862947464,
      0.2719978988170624,
      0.6105470061302185,
      0.029127590358257294,
      -0.16219621896743774,
      -0.004066187888383865,
      0.2955762445926666,
      0.23009002208709717,
      -0.12455970048904419,
      0.01774187572300434,
      -0.20841075479984283,
      0.11284125596284866,
      -0.19077497720718384,
      -0.14002308249473572,
      0.06178578734397888,
      -0.18818630278110504,
      -0.11674925684928894,
      -0.12515486776828766,
      -0.2707965672016144,
      -0.008294074796140194,
      0.006908521056175232,
      0.0016592019237577915,
      -0.0010340919252485037,
      0.013453029096126556,
      -0.005376948043704033,
      0.0003787981695495546,
      0.0033834283240139484,
      0.0034554351586848497,
      0.0008594606770202518,
      0.007568842265754938,
      -0.0038578978274017572,
      1.2195290764793754e-05,
      0.001549064414575696,
      -0.005518930032849312,
      -0.0017081445548683405,
      0.5406067371368408
    ],
    "Function_Type": "sinusoidal",
    "Training_Loss": 0.01909222301434387,
    "Validation_Loss": 0.021847074292600153,
    "Test_Loss": 0.019553222879767417,
    "Training_Time": 2.1423397064208984
  }
}